{
  "pixel_classifier_type": "OpenCVPixelClassifier",
  "metadata": {
    "inputPadding": 0,
    "inputResolution": {
      "pixelWidth": {
        "value": 2.0172,
        "unit": "µm"
      },
      "pixelHeight": {
        "value": 2.0172,
        "unit": "µm"
      },
      "zSpacing": {
        "value": 1.0,
        "unit": "z-slice"
      },
      "timeUnit": "SECONDS",
      "timepoints": []
    },
    "inputWidth": 512,
    "inputHeight": 512,
    "inputNumChannels": 3,
    "outputType": "CLASSIFICATION",
    "outputChannels": [
      {
        "name": "Ignore*",
        "color": 16776702
      },
      {
        "name": "Other",
        "color": -14336
      },
      {
        "name": "Stroma",
        "color": -6895466
      }
    ],
    "classificationLabels": {
      "0": {
        "name": "Ignore*",
        "colorRGB": -4934476
      },
      "1": {
        "name": "Other",
        "colorRGB": -14336
      },
      "2": {
        "name": "Stroma",
        "colorRGB": -6895466
      }
    }
  },
  "op": {
    "type": "data.op.channels",
    "colorTransforms": [
      {
        "channelName": "Red"
      },
      {
        "channelName": "Green"
      },
      {
        "channelName": "Blue"
      }
    ],
    "op": {
      "type": "op.core.sequential",
      "ops": [
        {
          "type": "op.core.sequential",
          "ops": [
            {
              "type": "op.core.split-merge",
              "ops": [
                {
                  "type": "op.filters.multiscale",
                  "features": [
                    "GAUSSIAN",
                    "LAPLACIAN",
                    "WEIGHTED_STD_DEV",
                    "GRADIENT_MAGNITUDE",
                    "STRUCTURE_TENSOR_EIGENVALUE_MAX",
                    "STRUCTURE_TENSOR_EIGENVALUE_MIN",
                    "STRUCTURE_TENSOR_COHERENCE",
                    "HESSIAN_DETERMINANT",
                    "HESSIAN_EIGENVALUE_MAX",
                    "HESSIAN_EIGENVALUE_MIN"
                  ],
                  "sigmaX": 0.5,
                  "sigmaY": 0.5
                },
                {
                  "type": "op.filters.multiscale",
                  "features": [
                    "GAUSSIAN",
                    "LAPLACIAN",
                    "WEIGHTED_STD_DEV",
                    "GRADIENT_MAGNITUDE",
                    "STRUCTURE_TENSOR_EIGENVALUE_MAX",
                    "STRUCTURE_TENSOR_EIGENVALUE_MIN",
                    "STRUCTURE_TENSOR_COHERENCE",
                    "HESSIAN_DETERMINANT",
                    "HESSIAN_EIGENVALUE_MAX",
                    "HESSIAN_EIGENVALUE_MIN"
                  ],
                  "sigmaX": 1.0,
                  "sigmaY": 1.0
                },
                {
                  "type": "op.filters.multiscale",
                  "features": [
                    "GAUSSIAN",
                    "LAPLACIAN",
                    "WEIGHTED_STD_DEV",
                    "GRADIENT_MAGNITUDE",
                    "STRUCTURE_TENSOR_EIGENVALUE_MAX",
                    "STRUCTURE_TENSOR_EIGENVALUE_MIN",
                    "STRUCTURE_TENSOR_COHERENCE",
                    "HESSIAN_DETERMINANT",
                    "HESSIAN_EIGENVALUE_MAX",
                    "HESSIAN_EIGENVALUE_MIN"
                  ],
                  "sigmaX": 2.0,
                  "sigmaY": 2.0
                },
                {
                  "type": "op.filters.multiscale",
                  "features": [
                    "GAUSSIAN",
                    "LAPLACIAN",
                    "WEIGHTED_STD_DEV",
                    "GRADIENT_MAGNITUDE",
                    "STRUCTURE_TENSOR_EIGENVALUE_MAX",
                    "STRUCTURE_TENSOR_EIGENVALUE_MIN",
                    "STRUCTURE_TENSOR_COHERENCE",
                    "HESSIAN_DETERMINANT",
                    "HESSIAN_EIGENVALUE_MAX",
                    "HESSIAN_EIGENVALUE_MIN"
                  ],
                  "sigmaX": 4.0,
                  "sigmaY": 4.0
                },
                {
                  "type": "op.filters.multiscale",
                  "features": [
                    "GAUSSIAN",
                    "LAPLACIAN",
                    "WEIGHTED_STD_DEV",
                    "GRADIENT_MAGNITUDE",
                    "STRUCTURE_TENSOR_EIGENVALUE_MAX",
                    "STRUCTURE_TENSOR_EIGENVALUE_MIN",
                    "STRUCTURE_TENSOR_COHERENCE",
                    "HESSIAN_DETERMINANT",
                    "HESSIAN_EIGENVALUE_MAX",
                    "HESSIAN_EIGENVALUE_MIN"
                  ],
                  "sigmaX": 8.0,
                  "sigmaY": 8.0
                }
              ]
            },
            {
              "type": "op.ml.feature-preprocessor",
              "preprocessor": {
                "normalizer": {
                  "offsets": [
                    0.0,
                    0.0,
                    0.0,
                    0.0,
                    0.0,
                    0.0,
                    0.0,
                    0.0,
                    0.0,
                    0.0,
                    0.0,
                    0.0,
                    0.0,
                    0.0,
                    0.0,
                    0.0,
                    0.0,
                    0.0,
                    0.0,
                    0.0,
                    0.0,
                    0.0,
                    0.0,
                    0.0,
                    0.0,
                    0.0,
                    0.0,
                    0.0,
                    0.0,
                    0.0,
                    0.0,
                    0.0,
                    0.0,
                    0.0,
                    0.0,
                    0.0,
                    0.0,
                    0.0,
                    0.0,
                    0.0,
                    0.0,
                    0.0,
                    0.0,
                    0.0,
                    0.0,
                    0.0,
                    0.0,
                    0.0,
                    0.0,
                    0.0,
                    0.0,
                    0.0,
                    0.0,
                    0.0,
                    0.0,
                    0.0,
                    0.0,
                    0.0,
                    0.0,
                    0.0,
                    0.0,
                    0.0,
                    0.0,
                    0.0,
                    0.0,
                    0.0,
                    0.0,
                    0.0,
                    0.0,
                    0.0,
                    0.0,
                    0.0,
                    0.0,
                    0.0,
                    0.0,
                    0.0,
                    0.0,
                    0.0,
                    0.0,
                    0.0,
                    0.0,
                    0.0,
                    0.0,
                    0.0,
                    0.0,
                    0.0,
                    0.0,
                    0.0,
                    0.0,
                    0.0,
                    0.0,
                    0.0,
                    0.0,
                    0.0,
                    0.0,
                    0.0,
                    0.0,
                    0.0,
                    0.0,
                    0.0,
                    0.0,
                    0.0,
                    0.0,
                    0.0,
                    0.0,
                    0.0,
                    0.0,
                    0.0,
                    0.0,
                    0.0,
                    0.0,
                    0.0,
                    0.0,
                    0.0,
                    0.0,
                    0.0,
                    0.0,
                    0.0,
                    0.0,
                    0.0,
                    0.0,
                    0.0,
                    0.0,
                    0.0,
                    0.0,
                    0.0,
                    0.0,
                    0.0,
                    0.0,
                    0.0,
                    0.0,
                    0.0,
                    0.0,
                    0.0,
                    0.0,
                    0.0,
                    0.0,
                    0.0,
                    0.0,
                    0.0,
                    0.0,
                    0.0,
                    0.0,
                    0.0,
                    0.0,
                    0.0,
                    0.0,
                    0.0,
                    0.0,
                    0.0
                  ],
                  "scales": [
                    1.0,
                    1.0,
                    1.0,
                    1.0,
                    1.0,
                    1.0,
                    1.0,
                    1.0,
                    1.0,
                    1.0,
                    1.0,
                    1.0,
                    1.0,
                    1.0,
                    1.0,
                    1.0,
                    1.0,
                    1.0,
                    1.0,
                    1.0,
                    1.0,
                    1.0,
                    1.0,
                    1.0,
                    1.0,
                    1.0,
                    1.0,
                    1.0,
                    1.0,
                    1.0,
                    1.0,
                    1.0,
                    1.0,
                    1.0,
                    1.0,
                    1.0,
                    1.0,
                    1.0,
                    1.0,
                    1.0,
                    1.0,
                    1.0,
                    1.0,
                    1.0,
                    1.0,
                    1.0,
                    1.0,
                    1.0,
                    1.0,
                    1.0,
                    1.0,
                    1.0,
                    1.0,
                    1.0,
                    1.0,
                    1.0,
                    1.0,
                    1.0,
                    1.0,
                    1.0,
                    1.0,
                    1.0,
                    1.0,
                    1.0,
                    1.0,
                    1.0,
                    1.0,
                    1.0,
                    1.0,
                    1.0,
                    1.0,
                    1.0,
                    1.0,
                    1.0,
                    1.0,
                    1.0,
                    1.0,
                    1.0,
                    1.0,
                    1.0,
                    1.0,
                    1.0,
                    1.0,
                    1.0,
                    1.0,
                    1.0,
                    1.0,
                    1.0,
                    1.0,
                    1.0,
                    1.0,
                    1.0,
                    1.0,
                    1.0,
                    1.0,
                    1.0,
                    1.0,
                    1.0,
                    1.0,
                    1.0,
                    1.0,
                    1.0,
                    1.0,
                    1.0,
                    1.0,
                    1.0,
                    1.0,
                    1.0,
                    1.0,
                    1.0,
                    1.0,
                    1.0,
                    1.0,
                    1.0,
                    1.0,
                    1.0,
                    1.0,
                    1.0,
                    1.0,
                    1.0,
                    1.0,
                    1.0,
                    1.0,
                    1.0,
                    1.0,
                    1.0,
                    1.0,
                    1.0,
                    1.0,
                    1.0,
                    1.0,
                    1.0,
                    1.0,
                    1.0,
                    1.0,
                    1.0,
                    1.0,
                    1.0,
                    1.0,
                    1.0,
                    1.0,
                    1.0,
                    1.0,
                    1.0,
                    1.0,
                    1.0,
                    1.0,
                    1.0,
                    1.0,
                    1.0
                  ],
                  "missingValue": 0.0
                },
                "inputLength": 150,
                "outputLength": 150
              }
            }
          ]
        },
        {
          "type": "op.ml.opencv-statmodel",
          "model": {
            "class": "ANN_MLP",
            "statmodel": {
              "opencv_ml_ann_mlp": {
                "format": 3,
                "layer_sizes": [
                  150,
                  3
                ],
                "activation_function": "SIGMOID_SYM",
                "f_param1": 1.0,
                "f_param2": 1.0,
                "min_val": -9.4999999999999996e-01,
                "max_val": 9.4999999999999996e-01,
                "min_val1": -9.7999999999999998e-01,
                "max_val1": 9.7999999999999998e-01,
                "training_params": {
                  "train_method": "RPROP",
                  "dw0": 1.0000000000000001e-01,
                  "dw_plus": 1.2000000000000000e+00,
                  "dw_minus": 5.0000000000000000e-01,
                  "dw_min": 1.1920928955078125e-07,
                  "dw_max": 50.0,
                  "term_criteria": {
                    "epsilon": 1.0000000000000000e-02,
                    "iterations": 1000
                  }
                },
                "input_scale": [
                  2.4493767967485085e-02,
                  -5.1820459806626822e+00,
                  1.3271629393943146e-02,
                  3.1656329136223995e+00,
                  2.7068857422860076e-01,
                  -1.6619097659679027e-01,
                  8.4297358953388829e-02,
                  -7.9280461512213474e-01,
                  3.1615414966202603e-05,
                  -4.7754354169435853e-01,
                  3.3481113011312531e-04,
                  -4.7006923060924199e-01,
                  3.5605969136580899e+00,
                  -2.2260286028828129e+00,
                  1.2697941387943782e-04,
                  -1.9394987906073511e+00,
                  2.0953479851595895e-02,
                  2.1574777031308994e+00,
                  2.1539170187539234e-02,
                  2.6721017952904322e+00,
                  1.6787147460094801e-02,
                  -3.1071146276524249e+00,
                  1.1135352969283084e-02,
                  2.3266943674832952e+00,
                  1.9610170280838352e-01,
                  -2.4599361799053568e-01,
                  8.3598926744619911e-02,
                  -7.8639760424392680e-01,
                  3.1281881469474724e-05,
                  -4.7670985403954180e-01,
                  3.2882766576046977e-04,
                  -4.6691640239897919e-01,
                  3.5813495608657862e+00,
                  -2.2486923088907207e+00,
                  1.2222375007974636e-04,
                  -1.5345960029957533e+00,
                  1.8791588592560794e-02,
                  1.6744980525658431e+00,
                  2.0576046380857464e-02,
                  2.2696431613744203e+00,
                  2.4241364015568770e-02,
                  -5.0790779592565363e+00,
                  1.3194187531013535e-02,
                  3.1171084086810694e+00,
                  2.9079435039492024e-01,
                  -1.5602161574568188e-01,
                  8.4527542784556195e-02,
                  -7.8919362752203959e-01,
                  3.2028245804453003e-05,
                  -4.7907428886029657e-01,
                  3.4070323950172941e-04,
                  -4.7115278777972647e-01,
                  3.5726302015853495e+00,
                  -2.2298629190572665e+00,
                  1.2535597263704692e-04,
                  -1.8827640475477683e+00,
                  2.1127519533757824e-02,
                  2.1606778737376322e+00,
                  2.1672095462478058e-02,
                  2.6729688445667623e+00,
                  2.6378427116132711e-02,
                  -5.4182080812710360e+00,
                  9.1858355903231825e-02,
                  1.5543642973601904e-02,
                  8.3109395285446225e-02,
                  -9.6134944233355213e-01,
                  1.2437590569123219e-01,
                  -8.2317192313470167e-01,
                  4.4207537351347994e-05,
                  -5.6872367601610574e-01,
                  1.6927124597532141e-04,
                  -5.4394416300652726e-01,
                  3.8392707836843813e+00,
                  -1.4594166760445118e+00,
                  1.2296735645517216e-02,
                  9.6813913475720745e-03,
                  1.5287176339665862e-01,
                  -5.2665863482884567e-01,
                  1.3815342711329770e-01,
                  4.9932297878060039e-01,
                  1.7627839707547700e-02,
                  -3.1669972223101337e+00,
                  9.1290957539502046e-02,
                  1.6787436112103152e-02,
                  8.2405251186299433e-02,
                  -9.5655330483495793e-01,
                  1.2384649788628115e-01,
                  -8.2180476664431168e-01,
                  4.3653369417046456e-05,
                  -5.6939925886725495e-01,
                  1.6680880711017441e-04,
                  -5.4291698731941207e-01,
                  3.8816660954038893e+00,
                  -1.4824773989461926e+00,
                  1.2047875853099067e-02,
                  1.0801905105289800e-02,
                  1.5249201694109560e-01,
                  -5.2747481483130243e-01,
                  1.3661764831818493e-01,
                  4.9767524999781709e-01,
                  2.6077436209393914e-02,
                  -5.3044893715747445e+00,
                  9.2230164842915158e-02,
                  1.5930474473316240e-02,
                  8.3370626856416705e-02,
                  -9.5951728779894097e-01,
                  1.2541395595261057e-01,
                  -8.2176645969788054e-01,
                  4.4879196859865122e-05,
                  -5.7198056638030659e-01,
                  1.7162487528068422e-04,
                  -5.4527822561722694e-01,
                  3.8915815675376928e+00,
                  -1.4905270193058717e+00,
                  1.2392107256569989e-02,
                  1.1193207347463298e-02,
                  1.5385546374928602e-01,
                  -5.2839180697300248e-01,
                  1.3821845497992091e-01,
                  4.9856725553480358e-01,
                  2.7639129603689909e-02,
                  -5.6796666496745560e+00,
                  3.7757093415929832e-01,
                  -2.5891930246857063e-02,
                  7.4517728817359560e-02,
                  -1.1279553178131805e+00,
                  3.2943072404145035e-01,
                  -8.8554420859716843e-01,
                  5.7822665216271596e-05,
                  -6.6993199936558978e-01,
                  1.3722651568666284e-04,
                  -6.3755666035461223e-01,
                  4.9046509745382085e+00,
                  -1.0714955340082435e+00,
                  2.1953357017222616e-01,
                  -1.6210202921784291e-02,
                  5.9863595437888018e-01,
                  -5.3635264338419208e-01,
                  6.2090612457867345e-01,
                  5.1372713766296729e-01,
                  1.8039856223121774e-02,
                  -3.2428886985367122e+00,
                  3.6314954295867913e-01,
                  -3.4030106123339635e-02,
                  7.3144247111954983e-02,
                  -1.1222466372366573e+00,
                  3.1571882378864380e-01,
                  -8.7536582340271307e-01,
                  5.6408896713865948e-05,
                  -6.7310467738662627e-01,
                  1.3538197271666385e-04,
                  -6.3944476712309095e-01,
                  4.9249018522706658e+00,
                  -1.0747717652915445e+00,
                  2.0413658394820075e-01,
                  -2.4936024630782417e-02,
                  5.7132072095452491e-01,
                  -5.2993873235195810e-01,
                  6.0546010194203814e-01,
                  5.0486872138828942e-01,
                  2.7305541450848687e-02,
                  -5.5572254425598615e+00,
                  3.7581035274551411e-01,
                  -3.2689976497519105e-02,
                  7.4877576387036987e-02,
                  -1.1304780240281020e+00,
                  3.3358677193251340e-01,
                  -8.8889076202517325e-01,
                  5.8847736057829908e-05,
                  -6.7906220948637430e-01,
                  1.3981811466817355e-04,
                  -6.4328750731582218e-01,
                  4.9837620224399322e+00,
                  -1.0906708230105626e+00,
                  2.1802573499950934e-01,
                  -2.1579638075393748e-02,
                  5.9494205281787915e-01,
                  -5.3731323184184676e-01,
                  6.2219617009723238e-01,
                  5.0780546970480245e-01,
                  2.8693011533686686e-02,
                  -5.9043070866356206e+00,
                  2.1977238575491569e+00,
                  -9.3996563439674333e-04,
                  7.3490141917102667e-02,
                  -1.2683690487086654e+00,
                  9.8055923459636751e-01,
                  -8.7958626110377824e-01,
                  7.1121142649266421e-05,
                  -7.7369391232026619e-01,
                  1.3024026733713293e-04,
                  -7.1740058515392080e-01,
                  6.5830549283852564e+00,
                  -8.8593024477928983e-01,
                  8.2127920119839999e+00,
                  -1.3458841680230227e-02,
                  3.4622078931617657e+00,
                  -5.3310731025948577e-01,
                  3.6998901450142370e+00,
                  5.6812294398098651e-01,
                  1.8519800342525091e-02,
                  -3.3368780012253665e+00,
                  1.7497258618364859e+00,
                  -3.7508646559154479e-02,
                  6.9392195177584479e-02,
                  -1.2390433406722408e+00,
                  7.2919925418662879e-01,
                  -7.6003615229537547e-01,
                  6.8170674176289210e-05,
                  -7.7300395393977672e-01,
                  1.2799635288329221e-04,
                  -7.1961794731255935e-01,
                  6.5832727881748578e+00,
                  -8.9788390321309375e-01,
                  4.3284800654232809e+00,
                  -7.7034820999661427e-02,
                  2.6490454035214710e+00,
                  -4.7423170016252542e-01,
                  3.2948347520890726e+00,
                  5.1920986505471978e-01,
                  2.8534987367102145e-02,
                  -5.8187034144244327e+00,
                  2.0081477585133700e+00,
                  -3.3826086162756168e-02,
                  7.2990452102591447e-02,
                  -1.2631545868631993e+00,
                  9.1934704527228406e-01,
                  -8.3638379270821184e-01,
                  7.1949827512303430e-05,
                  -7.8373600545937505e-01,
                  1.3257662623233462e-04,
                  -7.2487423958937836e-01,
                  6.7583207334657907e+00,
                  -8.8725866981435642e-01,
                  5.8339980796767481e+00,
                  -6.0620139053877482e-02,
                  3.0361838418333957e+00,
                  -4.9193577453092768e-01,
                  3.7353543443831194e+00,
                  5.4229855396715632e-01,
                  2.9318541420067817e-02,
                  -6.0325108027826859e+00,
                  1.1715234673472743e+01,
                  1.2120271191556192e-01,
                  7.3161134088548491e-02,
                  -1.3828545872997189e+00,
                  2.0676986378151780e+00,
                  -7.3229883593532119e-01,
                  8.0275876643194776e-05,
                  -8.6443361133139640e-01,
                  1.2623971161372985e-04,
                  -7.8412410245004616e-01,
                  8.9741223532899497e+00,
                  -8.4063887468998622e-01,
                  2.7548466347191572e+02,
                  -9.4629020212125284e-02,
                  2.0792481022829794e+01,
                  -4.5655004653123527e-01,
                  1.8674491142475947e+01,
                  6.0324570422653356e-01,
                  1.8935433622323677e-02,
                  -3.4156233649407772e+00,
                  8.4196190421319166e+00,
                  4.7807573302826409e-02,
                  6.6950018816553422e-02,
                  -1.3439585054482746e+00,
                  1.3122792891038022e+00,
                  -6.3802282607463445e-01,
                  7.7116955727223163e-05,
                  -8.6806325197881851e-01,
                  1.2258237649812609e-04,
                  -7.8077997662364007e-01,
                  8.6275369551189822e+00,
                  -8.5767916614174533e-01,
                  1.0155053906532176e+02,
                  -9.5075185742486606e-02,
                  1.4638167859745613e+01,
                  -4.6060564978350871e-01,
                  1.3828399132645011e+01,
                  5.1364466141142129e-01,
                  2.9403821596483599e-02,
                  -6.0014740767727375e+00,
                  1.1145355741361557e+01,
                  6.4313868954919015e-02,
                  7.2580611909590309e-02,
                  -1.3765692424863296e+00,
                  1.9394714379864491e+00,
                  -7.0261440336719561e-01,
                  8.1143282140052212e-05,
                  -8.7562961454454358e-01,
                  1.2867977336530474e-04,
                  -7.9326760803954455e-01,
                  8.7971962239471182e+00,
                  -8.2624092219627676e-01,
                  1.5873788010227389e+02,
                  -8.8049356695945533e-02,
                  1.9020652933865595e+01,
                  -4.5688836990313086e-01,
                  1.9084320025908287e+01,
                  5.6854306782057695e-01
                ],
                "output_scale": [
                  1.0,
                  0.0,
                  1.0,
                  0.0,
                  1.0,
                  0.0
                ],
                "inv_output_scale": [
                  1.0,
                  0.0,
                  1.0,
                  0.0,
                  1.0,
                  0.0
                ],
                "weights": [
                  [
                    -3.5317996630809517e-01,
                    -3.1346927908894762e-01,
                    5.0377437734345298e-01,
                    1.2707130134926908e-01,
                    8.4205889582034787e-02,
                    4.6115769023994924e-01,
                    -4.2720875074634868e-01,
                    2.4454056740430925e+00,
                    -4.4043822954286160e-01,
                    -1.1590748730801723e+00,
                    5.8400007248334240e-01,
                    -3.7875633081186288e-01,
                    2.9134389338541667e-02,
                    -1.0778851393120475e-01,
                    2.1637824911597550e-01,
                    -2.0241173465417966e-02,
                    -2.2692649118656791e-01,
                    2.8190462456932497e-01,
                    6.7502016460824532e-01,
                    -4.1155652329604764e-01,
                    4.3368942182235269e-02,
                    -7.7779442597717052e-01,
                    -2.6845771370019789e-01,
                    5.8524246711806927e-01,
                    -3.0014739722685514e-02,
                    8.2944441196961594e-01,
                    -6.7450874246245340e-01,
                    1.2121546683865367e+00,
                    4.4444091043831363e-01,
                    -1.8246220572654954e+00,
                    2.6005838019507515e+00,
                    3.3222031788886036e-01,
                    3.8892728859775566e-01,
                    -4.6798343057958613e-01,
                    -1.1439237403916949e+00,
                    9.4138431407933798e-01,
                    4.0348498073283018e-01,
                    -7.8342077804138710e-01,
                    -9.1574934965701948e-01,
                    -6.8435449901630196e-01,
                    1.7528366231340847e-01,
                    1.0527504739907747e+00,
                    5.8587336982297400e-01,
                    -3.4605167068584508e-01,
                    2.9484306804254068e-01,
                    -1.2237496001174430e-01,
                    5.7678760191658029e-01,
                    -9.2614457209754364e-01,
                    -3.0890773924579262e-01,
                    5.8251356057832226e-01,
                    -8.2373451786501531e-02,
                    9.4573911486088402e-01,
                    3.4914407968945231e-02,
                    -1.5479990504317398e+00,
                    -7.3353332265863180e-01,
                    -2.9243959341457060e-01,
                    2.1059474179032234e-01,
                    -3.4815370091671571e-02,
                    6.3168864758927940e-02,
                    2.8278970414649475e-02,
                    1.6297725469398179e+00,
                    5.2413070915524251e-01,
                    2.2758914795381022e-01,
                    -8.8965237602407843e-01,
                    -2.7418760590134311e-01,
                    3.8218091611263594e-01,
                    -2.1421477938863254e-01,
                    -1.5791237050541400e+00,
                    6.2628958329145890e-02,
                    -9.5965020852946237e-01,
                    -5.0038422928143522e-01,
                    -7.9726683930974951e-01,
                    1.5640322887413629e+00,
                    6.6119513332001090e-01,
                    -2.3709618340035771e-01,
                    -3.6206815518209690e-01,
                    7.5354296957085759e-02,
                    -1.1410525905000989e-02,
                    -6.0094487016537956e-01,
                    -4.3222340467305026e-01,
                    -4.1502959403363980e-02,
                    -7.3466827836884740e-01,
                    5.9908631138576107e-01,
                    -1.0762086430712490e+00,
                    9.7100599585251945e-01,
                    4.9951381175537884e-01,
                    -6.8041649046432695e-01,
                    -5.6588426185027718e-01,
                    4.7644789506024449e-01,
                    -9.7050207382706510e-01,
                    -3.4542240367115074e-01,
                    -1.1979981495526690e+00,
                    -1.4215948191491773e-02,
                    6.9450101258820507e-02,
                    -4.3125245483135954e-01,
                    -2.3616285347250132e-02,
                    -3.2782247622716881e-01,
                    -1.1283460983671638e-01,
                    6.8235385787100855e-01,
                    3.3365311744794129e-01,
                    -2.8023202807818737e-01,
                    1.5637266113047305e-01,
                    1.1827893163557730e+00,
                    9.7094956896841722e-01,
                    3.6936098219022023e-01,
                    -1.3248745807676448e-02,
                    -6.4572801448377148e-01,
                    2.5150895050175853e-01,
                    -3.1022902025212235e-01,
                    1.7414276456324296e-01,
                    -4.2389077504748171e-02,
                    1.1901835855393397e+00,
                    -6.4920712088046439e-01,
                    7.1895669564390641e-02,
                    4.3407368715942030e-01,
                    5.9936396540875658e-01,
                    1.7637461721531889e-01,
                    7.9891177434259741e-01,
                    9.5284998999555670e-01,
                    2.6568328258330393e-01,
                    8.5370848813844125e-01,
                    1.7350300569330273e-02,
                    3.1790569434101407e-01,
                    -9.4949224368363305e-01,
                    -1.3701692058468125e+00,
                    8.9165924436832689e-02,
                    2.0799532662285139e-01,
                    -1.1612398095904055e+00,
                    -1.7825343664225224e-02,
                    5.3290790603428129e-01,
                    6.9718907895411608e-01,
                    1.5486147357170613e-01,
                    1.7938533392270994e-01,
                    4.0251122243816534e-01,
                    5.8622164946923139e-01,
                    1.7110469971843316e+00,
                    2.0379799567673407e-01,
                    -9.2471142582742716e-01,
                    1.1450659264045537e-01,
                    5.2509565389561319e-01,
                    -1.4678117943694627e-01,
                    -2.4190200332055675e-01,
                    1.4202882061466821e-01,
                    8.9906174588406607e-02,
                    3.5084312054308792e-01,
                    3.7393036373680844e-01,
                    -6.2933239684530429e-01,
                    7.3295972196970849e-01,
                    9.0524702930463996e-01,
                    -2.6312197727204850e-01,
                    6.0453767104410638e-01,
                    -1.5501561445333706e-01,
                    2.9321913462894045e-01,
                    1.6772740883050791e-01,
                    1.9531952793506702e-01,
                    2.8012044042694473e-01,
                    -3.2334515788628065e-01,
                    -3.0747577156179062e-01,
                    1.1458430663992563e+00,
                    3.0180403276415435e-01,
                    -7.9135521020276628e-02,
                    8.4137379618845731e-01,
                    4.4134842153391349e-02,
                    -8.1269360065955198e-01,
                    -8.3594280018270617e-01,
                    4.7033232633543581e-01,
                    -1.0338367316674149e-01,
                    -6.0131307760050445e-01,
                    2.8638633150215387e-01,
                    -4.9123234280301992e-01,
                    -1.5914170101494429e-01,
                    -3.0242802695132837e-01,
                    2.6287649414149059e-02,
                    3.4846338000582272e-01,
                    7.9951718354772450e-01,
                    -2.8966054992871126e-01,
                    7.3991929891122876e-01,
                    2.6730264007528926e-01,
                    -2.5757346198300218e-01,
                    2.0474231774020839e-03,
                    1.0861542351234303e+00,
                    -2.1287433816938299e+00,
                    -9.2483286634639478e-02,
                    -4.4479583362454828e-01,
                    5.7518776282379092e-01,
                    -8.4226171585540677e-01,
                    -5.6238656554132205e-01,
                    -2.5482986934334761e-01,
                    7.5622229632575222e-01,
                    6.5393112539724671e-02,
                    -5.6042181336516028e-01,
                    -8.7298887829752736e-01,
                    -1.5516576740624044e-01,
                    6.3450215492515349e-01,
                    -6.2012848657606845e-01,
                    -4.4959005189728063e-01,
                    -6.2698538304471763e-01,
                    -2.4119265907451359e-01,
                    2.0075692262271932e-01,
                    -4.5988101460203584e-01,
                    4.0033020510049172e-02,
                    -6.7180091133998809e-01,
                    -3.7405159455465414e-01,
                    -2.5229153056075637e-01,
                    1.7777902481235555e-01,
                    -2.4811240437814908e-01,
                    8.7126734462808636e-02,
                    -3.1337547742946875e-01,
                    1.4665954712664866e-01,
                    3.2700310157194273e-01,
                    9.2024500642957618e-01,
                    7.1601762831242999e-01,
                    -6.6494895631760753e-01,
                    -2.7901673325333409e-01,
                    -6.9252370895809323e-01,
                    6.7363032751924223e-01,
                    5.6859401392524156e-01,
                    2.2604403086409075e-01,
                    4.9778573105863294e-01,
                    -5.5305884198215283e-01,
                    2.6060935514461409e-01,
                    -1.5307056567565658e-01,
                    5.3063177839554876e-01,
                    6.8220060719953957e-01,
                    -4.4921024744210059e-01,
                    2.7824486393597081e-01,
                    -2.5989117093198916e-01,
                    -2.7307922183711519e-01,
                    -2.6204145433028897e-01,
                    -2.7774607797985512e-01,
                    -5.3944796520987759e-01,
                    -4.8582364097567654e-01,
                    7.3538725488808288e-01,
                    -1.2495916955259617e-01,
                    2.7701061718346093e-01,
                    6.7894474614130410e-02,
                    6.3276511803056612e-01,
                    4.6368943558286863e-01,
                    -5.2209237926563601e-01,
                    6.2632200155138124e-02,
                    7.3054056297703096e-01,
                    1.4026362304272126e+00,
                    3.7421056964209798e-01,
                    -1.8464308301769622e-01,
                    1.4056112300734064e-01,
                    -9.3656268760575323e-01,
                    -4.1551286222704803e-01,
                    -7.0339290393516418e-01,
                    -5.6431190449350177e-01,
                    -3.6693309547060993e-01,
                    6.4543844161252373e-01,
                    -1.1560864448954714e-02,
                    -3.0868857272561356e-01,
                    -4.8171569461031832e-01,
                    2.4694520387803548e-01,
                    -3.1655641110860100e-01,
                    -4.6680470888196146e-01,
                    -3.9450001008077745e-01,
                    2.6617804082073665e-01,
                    8.1498914636167508e-01,
                    -1.7277533460229411e-01,
                    -2.2126417309899363e-01,
                    1.8822376672384754e-02,
                    8.5260306603371816e-01,
                    -5.6834926197672198e-01,
                    4.5723953467151579e-01,
                    8.2269395593964456e-01,
                    1.0321275099231150e-01,
                    -7.3612975336884190e-01,
                    -4.3573093153863068e-01,
                    -4.5514924484887759e-01,
                    -2.9085254247809562e+00,
                    -5.0872291275637438e-01,
                    7.5092417125736211e-01,
                    -7.5413320226744451e-01,
                    1.6640246735811365e-01,
                    -1.1618151830640628e+00,
                    -9.6191387738825529e-01,
                    -2.9621816604258250e-01,
                    -2.9072805348416469e-01,
                    -4.6953792977054276e-01,
                    4.0565615704291630e-01,
                    -4.6637245049933898e-02,
                    1.4344231595722412e+00,
                    -9.9152094599648499e-01,
                    -3.1303953849127714e-01,
                    6.8443544322479621e-01,
                    4.0550426730605371e-01,
                    -5.1812832985264889e-01,
                    3.4861184643117221e-01,
                    2.3726733839155267e-01,
                    -6.2101690089136130e-01,
                    -4.6494727823552989e-02,
                    1.0919422193341723e+00,
                    1.7212611637381597e-01,
                    8.8066633606814793e-01,
                    5.9628892259401989e-01,
                    -5.7651656465848591e-02,
                    -5.1143696430412966e-01,
                    5.7147371184144147e-01,
                    2.2219069354184442e+00,
                    -9.2349471855746645e-01,
                    2.1543919472754794e-01,
                    9.4776969615159146e-01,
                    -3.8914105199245269e-01,
                    -6.2069309899991743e-01,
                    4.7046954549121944e-01,
                    3.7972474271742096e-01,
                    5.6948967007051108e-03,
                    5.1784464441421907e-01,
                    -5.1137749233176122e-01,
                    1.5473457311669478e+00,
                    -1.6074237484474671e-01,
                    3.6713168571982480e-02,
                    -9.9943436969464705e-01,
                    -7.5746349574849259e-01,
                    9.1260896206630071e-01,
                    -2.1312958021547201e-01,
                    -2.0071805715944255e-01,
                    1.1258864223336835e+00,
                    1.7551942905816795e-01,
                    -7.6593431893905017e-01,
                    3.4850951964140425e-01,
                    -4.3050225145828214e-01,
                    -2.0746864995318845e-01,
                    5.6698224787701479e-01,
                    5.9279092666882793e-01,
                    5.0975455815231085e-01,
                    2.0038605158478182e+00,
                    -1.1858630976031885e-01,
                    2.0262405374072170e+00,
                    5.3933574051655331e-01,
                    4.6794966659415038e-01,
                    1.0992320920157663e+00,
                    -2.9334326386536042e-01,
                    2.6424035854819267e-01,
                    -8.1375397496749036e-01,
                    -4.3588830498544673e-01,
                    -2.5760797634965121e-01,
                    6.3287926697918329e-01,
                    2.2241698071036647e-01,
                    -2.8637408019840455e-01,
                    7.2990387110200561e-01,
                    -4.9979020535515611e-01,
                    2.5930436637132276e-01,
                    -2.0138709848421511e-02,
                    1.5680738019384230e-02,
                    -1.3505039671267491e+00,
                    3.1541544268426903e-02,
                    -3.3741146957181445e-01,
                    6.4562981709363276e-01,
                    -4.8737667320923261e-01,
                    -1.5855083173861198e-01,
                    -5.9275904958574011e-01,
                    -3.6285875002049345e-01,
                    9.0514027561512944e-02,
                    -5.5686898747022329e-01,
                    3.7525761050914058e-01,
                    -1.4783125112834886e-01,
                    -1.0331478047837506e+00,
                    -9.6965807692133055e-01,
                    -2.3059552345620742e+00,
                    1.6675445900587076e+00,
                    2.3579588695421757e-02,
                    -7.9956711329118857e-01,
                    -7.2296743268477914e-01,
                    -1.0056996549713078e+00,
                    -1.0213739410714495e+00,
                    3.1765949433520535e-01,
                    1.1719304909019022e+00,
                    -9.1218433653933384e-01,
                    4.2176502503532262e-02,
                    -7.8504410785656675e-01,
                    2.1933303304590694e+00,
                    6.8148591638521050e-02,
                    -3.6713399253635615e-01,
                    3.4523856397216988e+00,
                    -9.4278101277604875e-01,
                    1.0100380181672302e+00,
                    -5.9598581556348784e-01,
                    -3.1265393242263195e-01,
                    -6.3464558275791461e-01,
                    -1.7216322168035041e+00,
                    6.7563510083362710e-01,
                    3.6909866157092663e-01,
                    -1.8519980368285219e-01,
                    -2.4036733261142124e-01,
                    8.7434850078461834e-01,
                    -5.5432057799636270e-01,
                    6.4949420704492711e-01,
                    1.6846768856549794e+00,
                    -1.4528878333998124e-01,
                    -1.0527050195400056e+00,
                    -1.3170207816387858e+00,
                    -5.0315037922474715e-01,
                    8.8762255462578377e-01,
                    -2.9842433151329323e-01,
                    -8.1064977160390950e-01,
                    1.2178064822822772e+00,
                    1.2737108589512969e+00,
                    5.4794747235393304e-01,
                    -3.1162002998480798e+00,
                    1.4022805261487481e-01,
                    3.4192506093562552e-01,
                    5.0386959636534212e-01,
                    8.7911201801737404e-01,
                    1.5991524388955176e+00,
                    -9.9397294933420932e-01,
                    5.6898929456204728e-01,
                    -7.1160907834803122e-01,
                    -1.0738576777265416e+00,
                    6.7598619486298428e-01,
                    1.2270832828734524e+00,
                    -1.3874580187058958e+00,
                    -9.0951673890791573e-01,
                    1.8524928727325082e-01,
                    4.5464726856683416e-02,
                    -3.9828543123939214e-01,
                    1.3483705093199012e+00,
                    -5.6071423758416872e-01,
                    1.5100848881029023e+00,
                    8.5157876415956957e-01,
                    -1.6551364304814348e-01,
                    2.0476906574351394e-01,
                    1.7740733522720382e-02,
                    3.2916463514665145e-01,
                    -1.9032411361451689e+00,
                    -4.5492087458613673e-01,
                    5.6475646888521325e-01,
                    1.3817926632303614e+00,
                    8.7179393924213722e-01,
                    7.3973227001679709e-01,
                    6.1910725739099270e-01,
                    8.7174403328239070e-01,
                    5.1859647882740001e-01,
                    -6.0691886414245999e-01,
                    1.1520329279705837e+00,
                    -4.0623765551048741e-01,
                    -3.9119439386169641e-01,
                    -4.1922640433545766e-01,
                    1.2358418256979913e+00,
                    6.5969346850930877e-01,
                    3.9445156621704669e-01,
                    -1.6000324794700627e-01,
                    -2.6872867601983846e-01,
                    -4.0401365479701162e-01,
                    1.0965326454582636e+00,
                    7.0207554650479231e-01,
                    1.8906625101011064e-02,
                    -5.6021267319469248e-01,
                    -1.2549205673883982e+01,
                    -2.8980203001688629e+00,
                    -2.2332727326080835e+00
                  ]
                ]
              }
            }
          },
          "requestProbabilities": false
        },
        {
          "type": "op.core.convert",
          "pixelType": "UINT8"
        }
      ]
    }
  }
}